<?xml version="1.0"?>
<opencv_storage>
<stage7>
  <maxWeakCount>4</maxWeakCount>
  <stageThreshold>-1.3134325742721558e+00</stageThreshold>
  <weakClassifiers>
    <_>
      <internalNodes>
        0 -1 11754 -17105158 284556285 -246248 419676151 -2138979637
        880230784 -8570881 -67108865</internalNodes>
      <leafValues>
        -6.0769230127334595e-01 6.5833336114883423e-01</leafValues></_>
    <_>
      <internalNodes>
        0 -1 24637 1501729023 402653209 -2146073515 403739653
        -1744658294 -1191149566 -2013148997 -1194532625</internalNodes>
      <leafValues>
        -6.4517515897750854e-01 6.6504710912704468e-01</leafValues></_>
    <_>
      <internalNodes>
        0 -1 2360 -800161573 2013921346 -2147219439 -1010466809
        545882299 -905346654 -666592263 -301903353</internalNodes>
      <leafValues>
        -6.7695015668869019e-01 6.4103633165359497e-01</leafValues></_>
    <_>
      <internalNodes>
        0 -1 28086 -1878924839 155353361 73757 1427570954 -922174285
        134265617 788662427 1942472907</internalNodes>
      <leafValues>
        -7.0160138607025146e-01 6.5025693178176880e-01</leafValues></_></weakClassifiers></stage7>
</opencv_storage>
