<?xml version="1.0"?>
<opencv_storage>
<stage10>
  <maxWeakCount>4</maxWeakCount>
  <stageThreshold>-3.3485284447669983e-01</stageThreshold>
  <weakClassifiers>
    <_>
      <internalNodes>
        0 -1 21236 559157716 -1626209911 1074119261 1595609377
        -2136874757 -1668775791 -1995388227 1072238834</internalNodes>
      <leafValues>
        -7.8891819715499878e-01 4.8148149251937866e-01</leafValues></_>
    <_>
      <internalNodes>
        0 -1 655 -179260468 -1827897334 1073742107 319111175 -1165958757
        -909606904 51216783 1372815791</internalNodes>
      <leafValues>
        -7.3011898994445801e-01 5.3700107336044312e-01</leafValues></_>
    <_>
      <internalNodes>
        0 -1 30451 22127380 532791579 83890845 353453121 -2113887520
        -90505208 1258291402 -1077192704</internalNodes>
      <leafValues>
        -6.9239950180053711e-01 5.5182999372482300e-01</leafValues></_>
    <_>
      <internalNodes>
        0 -1 31789 -883171030 471024643 4312 1359300625 10551400
        -939294720 1176713 -812793125</internalNodes>
      <leafValues>
        -6.3476562500000000e-01 6.6181772947311401e-01</leafValues></_></weakClassifiers></stage10>
</opencv_storage>
